digraph Tree {
0 [label="X[6] <= 0.5000\ngini = 0.427604996713\nsamples = 975", shape="box"] ;
1 [label="X[3] <= 0.5000\ngini = 0.44945162017\nsamples = 607", shape="box"] ;
0 -> 1 ;
2 [label="X[4] <= 0.5000\ngini = 0.425843885171\nsamples = 309", shape="box"] ;
1 -> 2 ;
3 [label="X[1] <= 0.5000\ngini = 0.408163265306\nsamples = 77", shape="box"] ;
2 -> 3 ;
4 [label="X[5] <= 0.5000\ngini = 0.425078043704\nsamples = 62", shape="box"] ;
3 -> 4 ;
5 [label="X[2] <= 0.5000\ngini = 0.444444444444\nsamples = 45", shape="box"] ;
4 -> 5 ;
6 [label="gini = 0.4717\nsamples = 21\nvalue = [  8.  13.]", shape="box"] ;
5 -> 6 ;
7 [label="gini = 0.4132\nsamples = 24\nvalue = [  7.  17.]", shape="box"] ;
5 -> 7 ;
8 [label="X[2] <= 0.5000\ngini = 0.359861591696\nsamples = 17", shape="box"] ;
4 -> 8 ;
9 [label="gini = 0.2778\nsamples = 6\nvalue = [ 1.  5.]", shape="box"] ;
8 -> 9 ;
10 [label="gini = 0.3967\nsamples = 11\nvalue = [ 3.  8.]", shape="box"] ;
8 -> 10 ;
11 [label="X[2] <= 0.5000\ngini = 0.32\nsamples = 15", shape="box"] ;
3 -> 11 ;
12 [label="X[5] <= 0.5000\ngini = 0.297520661157\nsamples = 11", shape="box"] ;
11 -> 12 ;
13 [label="gini = 0.2188\nsamples = 8\nvalue = [ 1.  7.]", shape="box"] ;
12 -> 13 ;
14 [label="gini = 0.4444\nsamples = 3\nvalue = [ 1.  2.]", shape="box"] ;
12 -> 14 ;
15 [label="X[5] <= 0.5000\ngini = 0.375\nsamples = 4", shape="box"] ;
11 -> 15 ;
16 [label="gini = 0.4444\nsamples = 3\nvalue = [ 1.  2.]", shape="box"] ;
15 -> 16 ;
17 [label="gini = 0.0000\nsamples = 1\nvalue = [ 0.  1.]", shape="box"] ;
15 -> 17 ;
18 [label="X[1] <= 0.5000\ngini = 0.431294589774\nsamples = 232", shape="box"] ;
2 -> 18 ;
19 [label="X[2] <= 0.5000\ngini = 0.425408023292\nsamples = 189", shape="box"] ;
18 -> 19 ;
20 [label="X[5] <= 0.5000\ngini = 0.396694214876\nsamples = 55", shape="box"] ;
19 -> 20 ;
21 [label="gini = 0.3995\nsamples = 29\nvalue = [  8.  21.]", shape="box"] ;
20 -> 21 ;
22 [label="gini = 0.3935\nsamples = 26\nvalue = [  7.  19.]", shape="box"] ;
20 -> 22 ;
23 [label="X[5] <= 0.5000\ngini = 0.435843172199\nsamples = 134", shape="box"] ;
19 -> 23 ;
24 [label="gini = 0.4359\nsamples = 81\nvalue = [ 26.  55.]", shape="box"] ;
23 -> 24 ;
25 [label="gini = 0.4357\nsamples = 53\nvalue = [ 17.  36.]", shape="box"] ;
23 -> 25 ;
26 [label="X[2] <= 0.5000\ngini = 0.454299621417\nsamples = 43", shape="box"] ;
18 -> 26 ;
27 [label="X[5] <= 0.5000\ngini = 0.48\nsamples = 20", shape="box"] ;
26 -> 27 ;
28 [label="gini = 0.4592\nsamples = 14\nvalue = [ 5.  9.]", shape="box"] ;
27 -> 28 ;
29 [label="gini = 0.5000\nsamples = 6\nvalue = [ 3.  3.]", shape="box"] ;
27 -> 29 ;
30 [label="X[5] <= 0.5000\ngini = 0.423440453686\nsamples = 23", shape="box"] ;
26 -> 30 ;
31 [label="gini = 0.4260\nsamples = 13\nvalue = [ 4.  9.]", shape="box"] ;
30 -> 31 ;
32 [label="gini = 0.4200\nsamples = 10\nvalue = [ 3.  7.]", shape="box"] ;
30 -> 32 ;
33 [label="X[5] <= 0.5000\ngini = 0.469168055493\nsamples = 298", shape="box"] ;
1 -> 33 ;
34 [label="X[4] <= 0.5000\ngini = 0.482693347756\nsamples = 172", shape="box"] ;
33 -> 34 ;
35 [label="X[2] <= 0.5000\ngini = 0.499702558001\nsamples = 41", shape="box"] ;
34 -> 35 ;
36 [label="X[1] <= 0.5000\ngini = 0.5\nsamples = 16", shape="box"] ;
35 -> 36 ;
37 [label="gini = 0.5000\nsamples = 14\nvalue = [ 7.  7.]", shape="box"] ;
36 -> 37 ;
38 [label="gini = 0.5000\nsamples = 2\nvalue = [ 1.  1.]", shape="box"] ;
36 -> 38 ;
39 [label="X[1] <= 0.5000\ngini = 0.4992\nsamples = 25", shape="box"] ;
35 -> 39 ;
40 [label="gini = 0.4983\nsamples = 17\nvalue = [ 8.  9.]", shape="box"] ;
39 -> 40 ;
41 [label="gini = 0.5000\nsamples = 8\nvalue = [ 4.  4.]", shape="box"] ;
39 -> 41 ;
42 [label="X[2] <= 0.5000\ngini = 0.472000466173\nsamples = 131", shape="box"] ;
34 -> 42 ;
43 [label="X[1] <= 0.5000\ngini = 0.481665912177\nsamples = 47", shape="box"] ;
42 -> 43 ;
44 [label="gini = 0.4673\nsamples = 43\nvalue = [ 16.  27.]", shape="box"] ;
43 -> 44 ;
45 [label="gini = 0.3750\nsamples = 4\nvalue = [ 3.  1.]", shape="box"] ;
43 -> 45 ;
46 [label="X[1] <= 0.5000\ngini = 0.465702947846\nsamples = 84", shape="box"] ;
42 -> 46 ;
47 [label="gini = 0.4729\nsamples = 73\nvalue = [ 28.  45.]", shape="box"] ;
46 -> 47 ;
48 [label="gini = 0.3967\nsamples = 11\nvalue = [ 3.  8.]", shape="box"] ;
46 -> 48 ;
49 [label="X[1] <= 0.5000\ngini = 0.444444444444\nsamples = 126", shape="box"] ;
33 -> 49 ;
50 [label="X[4] <= 0.5000\ngini = 0.432464022208\nsamples = 117", shape="box"] ;
49 -> 50 ;
51 [label="X[2] <= 0.5000\ngini = 0.375\nsamples = 20", shape="box"] ;
50 -> 51 ;
52 [label="gini = 0.4082\nsamples = 7\nvalue = [ 2.  5.]", shape="box"] ;
51 -> 52 ;
53 [label="gini = 0.3550\nsamples = 13\nvalue = [  3.  10.]", shape="box"] ;
51 -> 53 ;
54 [label="X[2] <= 0.5000\ngini = 0.442129875651\nsamples = 97", shape="box"] ;
50 -> 54 ;
55 [label="gini = 0.4444\nsamples = 36\nvalue = [ 12.  24.]", shape="box"] ;
54 -> 55 ;
56 [label="gini = 0.4407\nsamples = 61\nvalue = [ 20.  41.]", shape="box"] ;
54 -> 56 ;
57 [label="X[4] <= 0.5000\ngini = 0.493827160494\nsamples = 9", shape="box"] ;
49 -> 57 ;
58 [label="gini = 0.0000\nsamples = 1\nvalue = [ 0.  1.]", shape="box"] ;
57 -> 58 ;
59 [label="X[2] <= 0.5000\ngini = 0.46875\nsamples = 8", shape="box"] ;
57 -> 59 ;
60 [label="gini = 0.5000\nsamples = 4\nvalue = [ 2.  2.]", shape="box"] ;
59 -> 60 ;
61 [label="gini = 0.3750\nsamples = 4\nvalue = [ 3.  1.]", shape="box"] ;
59 -> 61 ;
62 [label="X[1] <= 0.5000\ngini = 0.383019258034\nsamples = 368", shape="box"] ;
0 -> 62 ;
63 [label="X[5] <= 0.5000\ngini = 0.352653061224\nsamples = 280", shape="box"] ;
62 -> 63 ;
64 [label="X[3] <= 0.5000\ngini = 0.373516333462\nsamples = 169", shape="box"] ;
63 -> 64 ;
65 [label="X[4] <= 0.5000\ngini = 0.424016087331\nsamples = 59", shape="box"] ;
64 -> 65 ;
66 [label="X[2] <= 0.5000\ngini = 0.444444444444\nsamples = 18", shape="box"] ;
65 -> 66 ;
67 [label="gini = 0.4444\nsamples = 9\nvalue = [ 3.  6.]", shape="box"] ;
66 -> 67 ;
68 [label="gini = 0.4444\nsamples = 9\nvalue = [ 3.  6.]", shape="box"] ;
66 -> 68 ;
69 [label="X[2] <= 0.5000\ngini = 0.414039262344\nsamples = 41", shape="box"] ;
65 -> 69 ;
70 [label="gini = 0.4200\nsamples = 20\nvalue = [  6.  14.]", shape="box"] ;
69 -> 70 ;
71 [label="gini = 0.4082\nsamples = 21\nvalue = [  6.  15.]", shape="box"] ;
69 -> 71 ;
72 [label="X[2] <= 0.5000\ngini = 0.341157024793\nsamples = 110", shape="box"] ;
64 -> 72 ;
73 [label="X[4] <= 0.5000\ngini = 0.265927977839\nsamples = 38", shape="box"] ;
72 -> 73 ;
74 [label="gini = 0.2907\nsamples = 17\nvalue = [  3.  14.]", shape="box"] ;
73 -> 74 ;
75 [label="gini = 0.2449\nsamples = 21\nvalue = [  3.  18.]", shape="box"] ;
73 -> 75 ;
76 [label="X[4] <= 0.5000\ngini = 0.375\nsamples = 72", shape="box"] ;
72 -> 76 ;
77 [label="gini = 0.4734\nsamples = 13\nvalue = [ 5.  8.]", shape="box"] ;
76 -> 77 ;
78 [label="gini = 0.3436\nsamples = 59\nvalue = [ 13.  46.]", shape="box"] ;
76 -> 78 ;
79 [label="X[4] <= 0.5000\ngini = 0.317831344858\nsamples = 111", shape="box"] ;
63 -> 79 ;
80 [label="X[3] <= 0.5000\ngini = 0.226843100189\nsamples = 23", shape="box"] ;
79 -> 80 ;
81 [label="gini = 0.0000\nsamples = 5\nvalue = [ 0.  5.]", shape="box"] ;
80 -> 81 ;
82 [label="X[2] <= 0.5000\ngini = 0.277777777778\nsamples = 18", shape="box"] ;
80 -> 82 ;
83 [label="gini = 0.1975\nsamples = 9\nvalue = [ 1.  8.]", shape="box"] ;
82 -> 83 ;
84 [label="gini = 0.3457\nsamples = 9\nvalue = [ 2.  7.]", shape="box"] ;
82 -> 84 ;
85 [label="X[2] <= 0.5000\ngini = 0.338584710744\nsamples = 88", shape="box"] ;
79 -> 85 ;
86 [label="X[3] <= 0.5000\ngini = 0.32\nsamples = 35", shape="box"] ;
85 -> 86 ;
87 [label="gini = 0.4444\nsamples = 6\nvalue = [ 2.  4.]", shape="box"] ;
86 -> 87 ;
88 [label="gini = 0.2854\nsamples = 29\nvalue = [  5.  24.]", shape="box"] ;
86 -> 88 ;
89 [label="X[3] <= 0.5000\ngini = 0.35030259879\nsamples = 53", shape="box"] ;
85 -> 89 ;
90 [label="gini = 0.2449\nsamples = 14\nvalue = [  2.  12.]", shape="box"] ;
89 -> 90 ;
91 [label="gini = 0.3813\nsamples = 39\nvalue = [ 10.  29.]", shape="box"] ;
89 -> 91 ;
92 [label="X[4] <= 0.5000\ngini = 0.456353305785\nsamples = 88", shape="box"] ;
62 -> 92 ;
93 [label="X[2] <= 0.5000\ngini = 0.310650887574\nsamples = 26", shape="box"] ;
92 -> 93 ;
94 [label="X[3] <= 0.5000\ngini = 0.345679012346\nsamples = 18", shape="box"] ;
93 -> 94 ;
95 [label="X[5] <= 0.5000\ngini = 0.375\nsamples = 8", shape="box"] ;
94 -> 95 ;
96 [label="gini = 0.4444\nsamples = 6\nvalue = [ 2.  4.]", shape="box"] ;
95 -> 96 ;
97 [label="gini = 0.0000\nsamples = 2\nvalue = [ 0.  2.]", shape="box"] ;
95 -> 97 ;
98 [label="X[5] <= 0.5000\ngini = 0.32\nsamples = 10", shape="box"] ;
94 -> 98 ;
99 [label="gini = 0.2449\nsamples = 7\nvalue = [ 1.  6.]", shape="box"] ;
98 -> 99 ;
100 [label="gini = 0.4444\nsamples = 3\nvalue = [ 1.  2.]", shape="box"] ;
98 -> 100 ;
101 [label="X[5] <= 0.5000\ngini = 0.21875\nsamples = 8", shape="box"] ;
93 -> 101 ;
102 [label="X[3] <= 0.5000\ngini = 0.32\nsamples = 5", shape="box"] ;
101 -> 102 ;
103 [label="gini = 0.0000\nsamples = 1\nvalue = [ 0.  1.]", shape="box"] ;
102 -> 103 ;
104 [label="gini = 0.3750\nsamples = 4\nvalue = [ 1.  3.]", shape="box"] ;
102 -> 104 ;
105 [label="gini = 0.0000\nsamples = 3\nvalue = [ 0.  3.]", shape="box"] ;
101 -> 105 ;
106 [label="X[5] <= 0.5000\ngini = 0.486992715921\nsamples = 62", shape="box"] ;
92 -> 106 ;
107 [label="X[3] <= 0.5000\ngini = 0.5\nsamples = 34", shape="box"] ;
106 -> 107 ;
108 [label="X[2] <= 0.5000\ngini = 0.489795918367\nsamples = 14", shape="box"] ;
107 -> 108 ;
109 [label="gini = 0.4200\nsamples = 10\nvalue = [ 7.  3.]", shape="box"] ;
108 -> 109 ;
110 [label="gini = 0.3750\nsamples = 4\nvalue = [ 1.  3.]", shape="box"] ;
108 -> 110 ;
111 [label="X[2] <= 0.5000\ngini = 0.495\nsamples = 20", shape="box"] ;
107 -> 111 ;
112 [label="gini = 0.4444\nsamples = 6\nvalue = [ 2.  4.]", shape="box"] ;
111 -> 112 ;
113 [label="gini = 0.5000\nsamples = 14\nvalue = [ 7.  7.]", shape="box"] ;
111 -> 113 ;
114 [label="X[2] <= 0.5000\ngini = 0.436224489796\nsamples = 28", shape="box"] ;
106 -> 114 ;
115 [label="X[3] <= 0.5000\ngini = 0.459183673469\nsamples = 14", shape="box"] ;
114 -> 115 ;
116 [label="gini = 0.4444\nsamples = 6\nvalue = [ 2.  4.]", shape="box"] ;
115 -> 116 ;
117 [label="gini = 0.4688\nsamples = 8\nvalue = [ 3.  5.]", shape="box"] ;
115 -> 117 ;
118 [label="X[3] <= 0.5000\ngini = 0.408163265306\nsamples = 14", shape="box"] ;
114 -> 118 ;
119 [label="gini = 0.3750\nsamples = 4\nvalue = [ 1.  3.]", shape="box"] ;
118 -> 119 ;
120 [label="gini = 0.4200\nsamples = 10\nvalue = [ 3.  7.]", shape="box"] ;
118 -> 120 ;
}